digraph Tree {
node [shape=box, style="filled, rounded", color="black", fontname="helvetica"] ;
edge [fontname="helvetica"] ;
0 [label="petal length (cm) <= 2.5\ngini = 0.66\nsamples = 95\nvalue = [48, 56, 46]\nclass = versicolor", fillcolor="#effdf5"] ;
1 [label="gini = 0.0\nsamples = 31\nvalue = [48, 0, 0]\nclass = setosa", fillcolor="#e58139"] ;
0 -> 1 [labeldistance=2.5, labelangle=45, headlabel="True"] ;
2 [label="petal length (cm) <= 4.95\ngini = 0.5\nsamples = 64\nvalue = [0, 56, 46]\nclass = versicolor", fillcolor="#dcfae8"] ;
0 -> 2 [labeldistance=2.5, labelangle=-45, headlabel="False"] ;
3 [label="sepal length (cm) <= 4.95\ngini = 0.22\nsamples = 39\nvalue = [0, 55, 8]\nclass = versicolor", fillcolor="#56e993"] ;
2 -> 3 ;
4 [label="petal width (cm) <= 1.35\ngini = 0.38\nsamples = 2\nvalue = [0, 1, 3]\nclass = virginica", fillcolor="#ab7bee"] ;
3 -> 4 ;
5 [label="gini = 0.0\nsamples = 1\nvalue = [0, 1, 0]\nclass = versicolor", fillcolor="#39e581"] ;
4 -> 5 ;
6 [label="gini = 0.0\nsamples = 1\nvalue = [0, 0, 3]\nclass = virginica", fillcolor="#8139e5"] ;
4 -> 6 ;
7 [label="sepal width (cm) <= 2.65\ngini = 0.16\nsamples = 37\nvalue = [0, 54, 5]\nclass = versicolor", fillcolor="#4be78d"] ;
3 -> 7 ;
8 [label="gini = 0.0\nsamples = 10\nvalue = [0, 16, 0]\nclass = versicolor", fillcolor="#39e581"] ;
7 -> 8 ;
9 [label="petal length (cm) <= 4.75\ngini = 0.21\nsamples = 27\nvalue = [0, 38, 5]\nclass = versicolor", fillcolor="#53e892"] ;
7 -> 9 ;
10 [label="gini = 0.0\nsamples = 21\nvalue = [0, 35, 0]\nclass = versicolor", fillcolor="#39e581"] ;
9 -> 10 ;
11 [label="sepal width (cm) <= 3.05\ngini = 0.47\nsamples = 6\nvalue = [0, 3, 5]\nclass = virginica", fillcolor="#cdb0f5"] ;
9 -> 11 ;
12 [label="gini = 0.0\nsamples = 4\nvalue = [0, 0, 5]\nclass = virginica", fillcolor="#8139e5"] ;
11 -> 12 ;
13 [label="gini = 0.0\nsamples = 2\nvalue = [0, 3, 0]\nclass = versicolor", fillcolor="#39e581"] ;
11 -> 13 ;
14 [label="petal width (cm) <= 1.7\ngini = 0.05\nsamples = 25\nvalue = [0, 1, 38]\nclass = virginica", fillcolor="#843ee6"] ;
2 -> 14 ;
15 [label="sepal width (cm) <= 2.45\ngini = 0.5\nsamples = 2\nvalue = [0, 1, 1]\nclass = versicolor", fillcolor="#ffffff"] ;
14 -> 15 ;
16 [label="gini = 0.0\nsamples = 1\nvalue = [0, 0, 1]\nclass = virginica", fillcolor="#8139e5"] ;
15 -> 16 ;
17 [label="gini = 0.0\nsamples = 1\nvalue = [0, 1, 0]\nclass = versicolor", fillcolor="#39e581"] ;
15 -> 17 ;
18 [label="gini = 0.0\nsamples = 23\nvalue = [0, 0, 37]\nclass = virginica", fillcolor="#8139e5"] ;
14 -> 18 ;
}